digraph Tree {
node [shape=box, style="filled, rounded", color="black", fontname=helvetica] ;
edge [fontname=helvetica] ;
0 [label="bathrooms <= 1.25\ngini = 0.66\nsamples = 50\nvalue = [15, 20, 15]\nclass = MEDIA", fillcolor="#e3fbed"] ;
1 [label="gini = 0.0\nsamples = 3\nvalue = [0, 0, 3]\nclass = ACIMA", fillcolor="#8139e5"] ;
0 -> 1 [labeldistance=2.5, labelangle=45, headlabel="True"] ;
2 [label="view <= 2.5\ngini = 0.652\nsamples = 47\nvalue = [15, 20, 12]\nclass = MEDIA", fillcolor="#e0fbeb"] ;
0 -> 2 [labeldistance=2.5, labelangle=-45, headlabel="False"] ;
3 [label="bedrooms <= 4.5\ngini = 0.635\nsamples = 44\nvalue = [15, 20, 9]\nclass = MEDIA", fillcolor="#ddfbe9"] ;
2 -> 3 ;
4 [label="view <= 0.5\ngini = 0.619\nsamples = 32\nvalue = [14, 13, 5]\nclass = ABAIXO", fillcolor="#fef8f5"] ;
3 -> 4 ;
5 [label="bathrooms <= 4.125\ngini = 0.568\nsamples = 26\nvalue = [12, 12, 2]\nclass = ABAIXO", fillcolor="#ffffff"] ;
4 -> 5 ;
6 [label="bathrooms <= 3.375\ngini = 0.574\nsamples = 22\nvalue = [11, 9, 2]\nclass = ABAIXO", fillcolor="#fbece1"] ;
5 -> 6 ;
7 [label="condition <= 4.5\ngini = 0.594\nsamples = 16\nvalue = [6, 8, 2]\nclass = MEDIA", fillcolor="#d7fae6"] ;
6 -> 7 ;
8 [label="condition <= 3.5\ngini = 0.587\nsamples = 15\nvalue = [5, 8, 2]\nclass = MEDIA", fillcolor="#c4f7d9"] ;
7 -> 8 ;
9 [label="floors <= 1.5\ngini = 0.5\nsamples = 8\nvalue = [4, 4, 0]\nclass = ABAIXO", fillcolor="#ffffff"] ;
8 -> 9 ;
10 [label="gini = 0.0\nsamples = 2\nvalue = [2, 0, 0]\nclass = ABAIXO", fillcolor="#e58139"] ;
9 -> 10 ;
11 [label="bathrooms <= 2.75\ngini = 0.444\nsamples = 6\nvalue = [2, 4, 0]\nclass = MEDIA", fillcolor="#9cf2c0"] ;
9 -> 11 ;
12 [label="bedrooms <= 3.5\ngini = 0.5\nsamples = 4\nvalue = [2, 2, 0]\nclass = ABAIXO", fillcolor="#ffffff"] ;
11 -> 12 ;
13 [label="gini = 0.0\nsamples = 1\nvalue = [0, 1, 0]\nclass = MEDIA", fillcolor="#39e581"] ;
12 -> 13 ;
14 [label="bathrooms <= 2.0\ngini = 0.444\nsamples = 3\nvalue = [2, 1, 0]\nclass = ABAIXO", fillcolor="#f2c09c"] ;
12 -> 14 ;
15 [label="gini = 0.0\nsamples = 1\nvalue = [0, 1, 0]\nclass = MEDIA", fillcolor="#39e581"] ;
14 -> 15 ;
16 [label="gini = 0.0\nsamples = 2\nvalue = [2, 0, 0]\nclass = ABAIXO", fillcolor="#e58139"] ;
14 -> 16 ;
17 [label="gini = 0.0\nsamples = 2\nvalue = [0, 2, 0]\nclass = MEDIA", fillcolor="#39e581"] ;
11 -> 17 ;
18 [label="floors <= 1.5\ngini = 0.571\nsamples = 7\nvalue = [1, 4, 2]\nclass = MEDIA", fillcolor="#b0f5cd"] ;
8 -> 18 ;
19 [label="bathrooms <= 2.5\ngini = 0.32\nsamples = 5\nvalue = [1, 4, 0]\nclass = MEDIA", fillcolor="#6aeca0"] ;
18 -> 19 ;
20 [label="bathrooms <= 1.875\ngini = 0.444\nsamples = 3\nvalue = [1, 2, 0]\nclass = MEDIA", fillcolor="#9cf2c0"] ;
19 -> 20 ;
21 [label="gini = 0.0\nsamples = 1\nvalue = [0, 1, 0]\nclass = MEDIA", fillcolor="#39e581"] ;
20 -> 21 ;
22 [label="bedrooms <= 2.5\ngini = 0.5\nsamples = 2\nvalue = [1, 1, 0]\nclass = ABAIXO", fillcolor="#ffffff"] ;
20 -> 22 ;
23 [label="gini = 0.0\nsamples = 1\nvalue = [0, 1, 0]\nclass = MEDIA", fillcolor="#39e581"] ;
22 -> 23 ;
24 [label="gini = 0.0\nsamples = 1\nvalue = [1, 0, 0]\nclass = ABAIXO", fillcolor="#e58139"] ;
22 -> 24 ;
25 [label="gini = 0.0\nsamples = 2\nvalue = [0, 2, 0]\nclass = MEDIA", fillcolor="#39e581"] ;
19 -> 25 ;
26 [label="gini = 0.0\nsamples = 2\nvalue = [0, 0, 2]\nclass = ACIMA", fillcolor="#8139e5"] ;
18 -> 26 ;
27 [label="gini = 0.0\nsamples = 1\nvalue = [1, 0, 0]\nclass = ABAIXO", fillcolor="#e58139"] ;
7 -> 27 ;
28 [label="bathrooms <= 3.625\ngini = 0.278\nsamples = 6\nvalue = [5, 1, 0]\nclass = ABAIXO", fillcolor="#ea9a61"] ;
6 -> 28 ;
29 [label="condition <= 3.5\ngini = 0.375\nsamples = 4\nvalue = [3, 1, 0]\nclass = ABAIXO", fillcolor="#eeab7b"] ;
28 -> 29 ;
30 [label="floors <= 1.5\ngini = 0.444\nsamples = 3\nvalue = [2, 1, 0]\nclass = ABAIXO", fillcolor="#f2c09c"] ;
29 -> 30 ;
31 [label="gini = 0.0\nsamples = 1\nvalue = [1, 0, 0]\nclass = ABAIXO", fillcolor="#e58139"] ;
30 -> 31 ;
32 [label="gini = 0.5\nsamples = 2\nvalue = [1, 1, 0]\nclass = ABAIXO", fillcolor="#ffffff"] ;
30 -> 32 ;
33 [label="gini = 0.0\nsamples = 1\nvalue = [1, 0, 0]\nclass = ABAIXO", fillcolor="#e58139"] ;
29 -> 33 ;
34 [label="gini = 0.0\nsamples = 2\nvalue = [2, 0, 0]\nclass = ABAIXO", fillcolor="#e58139"] ;
28 -> 34 ;
35 [label="bathrooms <= 4.875\ngini = 0.375\nsamples = 4\nvalue = [1, 3, 0]\nclass = MEDIA", fillcolor="#7beeab"] ;
5 -> 35 ;
36 [label="gini = 0.0\nsamples = 2\nvalue = [0, 2, 0]\nclass = MEDIA", fillcolor="#39e581"] ;
35 -> 36 ;
37 [label="bathrooms <= 5.375\ngini = 0.5\nsamples = 2\nvalue = [1, 1, 0]\nclass = ABAIXO", fillcolor="#ffffff"] ;
35 -> 37 ;
38 [label="gini = 0.0\nsamples = 1\nvalue = [1, 0, 0]\nclass = ABAIXO", fillcolor="#e58139"] ;
37 -> 38 ;
39 [label="gini = 0.0\nsamples = 1\nvalue = [0, 1, 0]\nclass = MEDIA", fillcolor="#39e581"] ;
37 -> 39 ;
40 [label="condition <= 3.5\ngini = 0.611\nsamples = 6\nvalue = [2, 1, 3]\nclass = ACIMA", fillcolor="#e0cef8"] ;
4 -> 40 ;
41 [label="bathrooms <= 2.25\ngini = 0.625\nsamples = 4\nvalue = [2, 1, 1]\nclass = ABAIXO", fillcolor="#f6d5bd"] ;
40 -> 41 ;
42 [label="gini = 0.5\nsamples = 2\nvalue = [0, 1, 1]\nclass = MEDIA", fillcolor="#ffffff"] ;
41 -> 42 ;
43 [label="gini = 0.0\nsamples = 2\nvalue = [2, 0, 0]\nclass = ABAIXO", fillcolor="#e58139"] ;
41 -> 43 ;
44 [label="gini = 0.0\nsamples = 2\nvalue = [0, 0, 2]\nclass = ACIMA", fillcolor="#8139e5"] ;
40 -> 44 ;
45 [label="bathrooms <= 4.625\ngini = 0.542\nsamples = 12\nvalue = [1, 7, 4]\nclass = MEDIA", fillcolor="#b5f5d0"] ;
3 -> 45 ;
46 [label="condition <= 4.5\ngini = 0.406\nsamples = 8\nvalue = [1, 6, 1]\nclass = MEDIA", fillcolor="#72eca5"] ;
45 -> 46 ;
47 [label="bathrooms <= 2.875\ngini = 0.245\nsamples = 7\nvalue = [1, 6, 0]\nclass = MEDIA", fillcolor="#5ae996"] ;
46 -> 47 ;
48 [label="bathrooms <= 2.625\ngini = 0.444\nsamples = 3\nvalue = [1, 2, 0]\nclass = MEDIA", fillcolor="#9cf2c0"] ;
47 -> 48 ;
49 [label="gini = 0.0\nsamples = 2\nvalue = [0, 2, 0]\nclass = MEDIA", fillcolor="#39e581"] ;
48 -> 49 ;
50 [label="gini = 0.0\nsamples = 1\nvalue = [1, 0, 0]\nclass = ABAIXO", fillcolor="#e58139"] ;
48 -> 50 ;
51 [label="gini = 0.0\nsamples = 4\nvalue = [0, 4, 0]\nclass = MEDIA", fillcolor="#39e581"] ;
47 -> 51 ;
52 [label="gini = 0.0\nsamples = 1\nvalue = [0, 0, 1]\nclass = ACIMA", fillcolor="#8139e5"] ;
46 -> 52 ;
53 [label="bathrooms <= 5.5\ngini = 0.375\nsamples = 4\nvalue = [0, 1, 3]\nclass = ACIMA", fillcolor="#ab7bee"] ;
45 -> 53 ;
54 [label="gini = 0.0\nsamples = 2\nvalue = [0, 0, 2]\nclass = ACIMA", fillcolor="#8139e5"] ;
53 -> 54 ;
55 [label="bathrooms <= 5.875\ngini = 0.5\nsamples = 2\nvalue = [0, 1, 1]\nclass = MEDIA", fillcolor="#ffffff"] ;
53 -> 55 ;
56 [label="gini = 0.0\nsamples = 1\nvalue = [0, 1, 0]\nclass = MEDIA", fillcolor="#39e581"] ;
55 -> 56 ;
57 [label="gini = 0.0\nsamples = 1\nvalue = [0, 0, 1]\nclass = ACIMA", fillcolor="#8139e5"] ;
55 -> 57 ;
58 [label="gini = 0.0\nsamples = 3\nvalue = [0, 0, 3]\nclass = ACIMA", fillcolor="#8139e5"] ;
2 -> 58 ;
}